digraph Tree {
node [shape=box, style="filled", color="black"] ;
0 [label="Pclass <= 1.5\nmse = 207.5502\nsamples = 1046\nvalue = 29.8811", fillcolor="#e581399b"] ;
1 [label="Miss <= 0.5\nmse = 210.8999\nsamples = 284\nvalue = 39.1599", fillcolor="#e58139d6"] ;
0 -> 1 [labeldistance=2.5, labelangle=45, headlabel="True"] ;
2 [label="Fare <= 51.9313\nmse = 203.9438\nsamples = 222\nvalue = 41.7091", fillcolor="#e58139e6"] ;
1 -> 2 ;
3 [label="Fare <= 28.125\nmse = 148.7324\nsamples = 83\nvalue = 45.1807", fillcolor="#e58139fc"] ;
2 -> 3 ;
4 [label="mse = 113.9741\nsamples = 42\nvalue = 44.6786", fillcolor="#e58139f9"] ;
3 -> 4 ;
5 [label="mse = 183.8156\nsamples = 41\nvalue = 45.6951", fillcolor="#e58139ff"] ;
3 -> 5 ;
6 [label="Fare <= 68.8\nmse = 225.4179\nsamples = 139\nvalue = 39.6361", fillcolor="#e58139d9"] ;
2 -> 6 ;
7 [label="mse = 143.352\nsamples = 42\nvalue = 37.0714", fillcolor="#e58139c9"] ;
6 -> 7 ;
8 [label="is_female <= 0.5\nmse = 256.8704\nsamples = 97\nvalue = 40.7466", fillcolor="#e58139e0"] ;
6 -> 8 ;
9 [label="mse = 280.6779\nsamples = 56\nvalue = 38.2396", fillcolor="#e58139d0"] ;
8 -> 9 ;
10 [label="mse = 204.044\nsamples = 41\nvalue = 44.1707", fillcolor="#e58139f5"] ;
8 -> 10 ;
11 [label="mse = 129.2248\nsamples = 62\nvalue = 30.0323", fillcolor="#e581399c"] ;
1 -> 11 ;
12 [label="Master <= 0.5\nmse = 162.254\nsamples = 762\nvalue = 26.4229", fillcolor="#e5813985"] ;
0 -> 12 [labeldistance=2.5, labelangle=-45, headlabel="False"] ;
13 [label="Miss <= 0.5\nmse = 140.1246\nsamples = 714\nvalue = 27.8412", fillcolor="#e581398e"] ;
12 -> 13 ;
14 [label="Pclass <= 2.5\nmse = 116.5855\nsamples = 563\nvalue = 30.3659", fillcolor="#e581399e"] ;
13 -> 14 ;
15 [label="Fare <= 26.125\nmse = 134.4862\nsamples = 202\nvalue = 33.052", fillcolor="#e58139af"] ;
14 -> 15 ;
16 [label="Fare <= 13.25\nmse = 136.583\nsamples = 162\nvalue = 33.6852", fillcolor="#e58139b3"] ;
15 -> 16 ;
17 [label="Fare <= 12.4375\nmse = 148.1124\nsamples = 91\nvalue = 32.4451", fillcolor="#e58139ab"] ;
16 -> 17 ;
18 [label="mse = 227.0732\nsamples = 41\nvalue = 32.0", fillcolor="#e58139a8"] ;
17 -> 18 ;
19 [label="mse = 83.0689\nsamples = 50\nvalue = 32.81", fillcolor="#e58139ae"] ;
17 -> 19 ;
20 [label="mse = 117.3084\nsamples = 71\nvalue = 35.2746", fillcolor="#e58139bd"] ;
16 -> 20 ;
21 [label="mse = 117.7936\nsamples = 40\nvalue = 30.4875", fillcolor="#e581399f"] ;
15 -> 21 ;
22 [label="Mr <= 0.5\nmse = 100.2727\nsamples = 361\nvalue = 28.8629", fillcolor="#e5813995"] ;
14 -> 22 ;
23 [label="mse = 101.8117\nsamples = 49\nvalue = 32.3265", fillcolor="#e58139ab"] ;
22 -> 23 ;
24 [label="SibSp <= 0.5\nmse = 97.851\nsamples = 312\nvalue = 28.3189", fillcolor="#e5813991"] ;
22 -> 24 ;
25 [label="Fare <= 7.7625\nmse = 100.9124\nsamples = 261\nvalue = 28.7241", fillcolor="#e5813994"] ;
24 -> 25 ;
26 [label="mse = 134.8125\nsamples = 79\nvalue = 30.6013", fillcolor="#e58139a0"] ;
25 -> 26 ;
27 [label="Fare <= 7.8917\nmse = 84.0041\nsamples = 182\nvalue = 27.9093", fillcolor="#e581398f"] ;
25 -> 27 ;
28 [label="mse = 88.1995\nsamples = 45\nvalue = 26.5222", fillcolor="#e5813986"] ;
27 -> 28 ;
29 [label="Fare <= 8.1042\nmse = 81.7865\nsamples = 137\nvalue = 28.365", fillcolor="#e5813992"] ;
27 -> 29 ;
30 [label="mse = 76.7054\nsamples = 77\nvalue = 29.1364", fillcolor="#e5813996"] ;
29 -> 30 ;
31 [label="mse = 86.5635\nsamples = 60\nvalue = 27.375", fillcolor="#e581398b"] ;
29 -> 31 ;
32 [label="mse = 77.0429\nsamples = 51\nvalue = 26.2451", fillcolor="#e5813984"] ;
24 -> 32 ;
33 [label="Parch <= 0.5\nmse = 115.5108\nsamples = 151\nvalue = 18.4277", fillcolor="#e5813953"] ;
13 -> 33 ;
34 [label="Fare <= 8.9062\nmse = 60.8419\nsamples = 94\nvalue = 24.0957", fillcolor="#e5813977"] ;
33 -> 34 ;
35 [label="mse = 36.7469\nsamples = 54\nvalue = 23.0556", fillcolor="#e5813970"] ;
34 -> 35 ;
36 [label="mse = 89.9375\nsamples = 40\nvalue = 25.5", fillcolor="#e581397f"] ;
34 -> 36 ;
37 [label="mse = 65.316\nsamples = 57\nvalue = 9.0805", fillcolor="#e5813918"] ;
33 -> 37 ;
38 [label="mse = 16.4407\nsamples = 48\nvalue = 5.3263", fillcolor="#e5813900"] ;
12 -> 38 ;
}