digraph Tree {
node [shape=box, style="filled", color="black"] ;
0 [label="Mr <= 0.5\ngini = 0.473\nsamples = 891\nvalue = [549, 342]\nclass = dead", fillcolor="#e5813960"] ;
1 [label="Pclass <= 2.5\ngini = 0.4217\nsamples = 374\nvalue = [113, 261]\nclass = survived", fillcolor="#399de591"] ;
0 -> 1 [labeldistance=2.5, labelangle=45, headlabel="True"] ;
2 [label="Other <= 0.5\ngini = 0.2094\nsamples = 202\nvalue = [24, 178]\nclass = survived", fillcolor="#399de5dd"] ;
1 -> 2 ;
3 [label="Fare <= 28.8563\ngini = 0.1049\nsamples = 180\nvalue = [10, 170]\nclass = survived", fillcolor="#399de5f0"] ;
2 -> 3 ;
4 [label="Age_predict <= 37.0\ngini = 0.1713\nsamples = 74\nvalue = [7, 67]\nclass = survived", fillcolor="#399de5e4"] ;
3 -> 4 ;
5 [label="age_20_30 <= 0.5\ngini = 0.1031\nsamples = 55\nvalue = [3, 52]\nclass = survived", fillcolor="#399de5f0"] ;
4 -> 5 ;
6 [label="gini = 0.0\nsamples = 30\nvalue = [0, 30]\nclass = survived", fillcolor="#399de5ff"] ;
5 -> 6 ;
7 [label="Same_Ticket <= 1.5\ngini = 0.2112\nsamples = 25\nvalue = [3, 22]\nclass = survived", fillcolor="#399de5dc"] ;
5 -> 7 ;
8 [label="gini = 0.142\nsamples = 13\nvalue = [1, 12]\nclass = survived", fillcolor="#399de5ea"] ;
7 -> 8 ;
9 [label="gini = 0.2778\nsamples = 12\nvalue = [2, 10]\nclass = survived", fillcolor="#399de5cc"] ;
7 -> 9 ;
10 [label="gini = 0.3324\nsamples = 19\nvalue = [4, 15]\nclass = survived", fillcolor="#399de5bb"] ;
4 -> 10 ;
11 [label="Same_Ticket <= 4.5\ngini = 0.055\nsamples = 106\nvalue = [3, 103]\nclass = survived", fillcolor="#399de5f8"] ;
3 -> 11 ;
12 [label="Age_predict <= 51.5\ngini = 0.0217\nsamples = 91\nvalue = [1, 90]\nclass = survived", fillcolor="#399de5fc"] ;
11 -> 12 ;
13 [label="gini = 0.0\nsamples = 79\nvalue = [0, 79]\nclass = survived", fillcolor="#399de5ff"] ;
12 -> 13 ;
14 [label="gini = 0.1528\nsamples = 12\nvalue = [1, 11]\nclass = survived", fillcolor="#399de5e8"] ;
12 -> 14 ;
15 [label="gini = 0.2311\nsamples = 15\nvalue = [2, 13]\nclass = survived", fillcolor="#399de5d8"] ;
11 -> 15 ;
16 [label="gini = 0.4628\nsamples = 22\nvalue = [14, 8]\nclass = dead", fillcolor="#e581396d"] ;
2 -> 16 ;
17 [label="Same_Ticket <= 4.5\ngini = 0.4994\nsamples = 172\nvalue = [89, 83]\nclass = dead", fillcolor="#e5813911"] ;
1 -> 17 ;
18 [label="Same_Room_Surv <= 0.5\ngini = 0.4688\nsamples = 128\nvalue = [48, 80]\nclass = survived", fillcolor="#399de566"] ;
17 -> 18 ;
19 [label="Fare <= 8.0396\ngini = 0.4963\nsamples = 105\nvalue = [48, 57]\nclass = survived", fillcolor="#399de528"] ;
18 -> 19 ;
20 [label="Embarked_S <= 0.5\ngini = 0.4248\nsamples = 49\nvalue = [15, 34]\nclass = survived", fillcolor="#399de58e"] ;
19 -> 20 ;
21 [label="gini = 0.3282\nsamples = 29\nvalue = [6, 23]\nclass = survived", fillcolor="#399de5bc"] ;
20 -> 21 ;
22 [label="gini = 0.495\nsamples = 20\nvalue = [9, 11]\nclass = survived", fillcolor="#399de52e"] ;
20 -> 22 ;
23 [label="Miss <= 0.5\ngini = 0.4841\nsamples = 56\nvalue = [33, 23]\nclass = dead", fillcolor="#e581394d"] ;
19 -> 23 ;
24 [label="Age_predict <= 29.5\ngini = 0.4953\nsamples = 31\nvalue = [14, 17]\nclass = survived", fillcolor="#399de52d"] ;
23 -> 24 ;
25 [label="gini = 0.426\nsamples = 13\nvalue = [4, 9]\nclass = survived", fillcolor="#399de58e"] ;
24 -> 25 ;
26 [label="gini = 0.4938\nsamples = 18\nvalue = [10, 8]\nclass = dead", fillcolor="#e5813933"] ;
24 -> 26 ;
27 [label="Fare <= 11.4021\ngini = 0.3648\nsamples = 25\nvalue = [19, 6]\nclass = dead", fillcolor="#e58139ae"] ;
23 -> 27 ;
28 [label="gini = 0.1528\nsamples = 12\nvalue = [11, 1]\nclass = dead", fillcolor="#e58139e8"] ;
27 -> 28 ;
29 [label="gini = 0.4734\nsamples = 13\nvalue = [8, 5]\nclass = dead", fillcolor="#e5813960"] ;
27 -> 29 ;
30 [label="gini = 0.0\nsamples = 23\nvalue = [0, 23]\nclass = survived", fillcolor="#399de5ff"] ;
18 -> 30 ;
31 [label="Fare <= 31.3312\ngini = 0.1271\nsamples = 44\nvalue = [41, 3]\nclass = dead", fillcolor="#e58139ec"] ;
17 -> 31 ;
32 [label="gini = 0.0\nsamples = 24\nvalue = [24, 0]\nclass = dead", fillcolor="#e58139ff"] ;
31 -> 32 ;
33 [label="gini = 0.255\nsamples = 20\nvalue = [17, 3]\nclass = dead", fillcolor="#e58139d2"] ;
31 -> 33 ;
34 [label="Fare <= 26.2687\ngini = 0.2643\nsamples = 517\nvalue = [436, 81]\nclass = dead", fillcolor="#e58139d0"] ;
0 -> 34 [labeldistance=2.5, labelangle=-45, headlabel="False"] ;
35 [label="Embarked_C <= 0.5\ngini = 0.18\nsamples = 390\nvalue = [351, 39]\nclass = dead", fillcolor="#e58139e3"] ;
34 -> 35 ;
36 [label="Fare <= 13.25\ngini = 0.1679\nsamples = 346\nvalue = [314, 32]\nclass = dead", fillcolor="#e58139e5"] ;
35 -> 36 ;
37 [label="Fare <= 7.9104\ngini = 0.1884\nsamples = 285\nvalue = [255, 30]\nclass = dead", fillcolor="#e58139e1"] ;
36 -> 37 ;
38 [label="age_20_30 <= 0.5\ngini = 0.1252\nsamples = 149\nvalue = [139, 10]\nclass = dead", fillcolor="#e58139ed"] ;
37 -> 38 ;
39 [label="Fare <= 7.7438\ngini = 0.047\nsamples = 83\nvalue = [81, 2]\nclass = dead", fillcolor="#e58139f9"] ;
38 -> 39 ;
40 [label="gini = 0.0\nsamples = 46\nvalue = [46, 0]\nclass = dead", fillcolor="#e58139ff"] ;
39 -> 40 ;
41 [label="age_30_50 <= 0.5\ngini = 0.1023\nsamples = 37\nvalue = [35, 2]\nclass = dead", fillcolor="#e58139f0"] ;
39 -> 41 ;
42 [label="gini = 0.0\nsamples = 15\nvalue = [15, 0]\nclass = dead", fillcolor="#e58139ff"] ;
41 -> 42 ;
43 [label="gini = 0.1653\nsamples = 22\nvalue = [20, 2]\nclass = dead", fillcolor="#e58139e6"] ;
41 -> 43 ;
44 [label="Fare <= 7.7979\ngini = 0.213\nsamples = 66\nvalue = [58, 8]\nclass = dead", fillcolor="#e58139dc"] ;
38 -> 44 ;
45 [label="Fare <= 7.7459\ngini = 0.3599\nsamples = 34\nvalue = [26, 8]\nclass = dead", fillcolor="#e58139b1"] ;
44 -> 45 ;
46 [label="gini = 0.255\nsamples = 20\nvalue = [17, 3]\nclass = dead", fillcolor="#e58139d2"] ;
45 -> 46 ;
47 [label="gini = 0.4592\nsamples = 14\nvalue = [9, 5]\nclass = dead", fillcolor="#e5813971"] ;
45 -> 47 ;
48 [label="gini = 0.0\nsamples = 32\nvalue = [32, 0]\nclass = dead", fillcolor="#e58139ff"] ;
44 -> 48 ;
49 [label="Fare <= 7.9875\ngini = 0.2509\nsamples = 136\nvalue = [116, 20]\nclass = dead", fillcolor="#e58139d3"] ;
37 -> 49 ;
50 [label="gini = 0.4734\nsamples = 13\nvalue = [8, 5]\nclass = dead", fillcolor="#e5813960"] ;
49 -> 50 ;
51 [label="age_20_30 <= 0.5\ngini = 0.2142\nsamples = 123\nvalue = [108, 15]\nclass = dead", fillcolor="#e58139dc"] ;
49 -> 51 ;
52 [label="Fare <= 12.6375\ngini = 0.2812\nsamples = 65\nvalue = [54, 11]\nclass = dead", fillcolor="#e58139cb"] ;
51 -> 52 ;
53 [label="Fare <= 8.1042\ngini = 0.2368\nsamples = 51\nvalue = [44, 7]\nclass = dead", fillcolor="#e58139d6"] ;
52 -> 53 ;
54 [label="gini = 0.3878\nsamples = 19\nvalue = [14, 5]\nclass = dead", fillcolor="#e58139a4"] ;
53 -> 54 ;
55 [label="Pclass <= 2.5\ngini = 0.1172\nsamples = 32\nvalue = [30, 2]\nclass = dead", fillcolor="#e58139ee"] ;
53 -> 55 ;
56 [label="gini = 0.2604\nsamples = 13\nvalue = [11, 2]\nclass = dead", fillcolor="#e58139d1"] ;
55 -> 56 ;
57 [label="gini = 0.0\nsamples = 19\nvalue = [19, 0]\nclass = dead", fillcolor="#e58139ff"] ;
55 -> 57 ;
58 [label="gini = 0.4082\nsamples = 14\nvalue = [10, 4]\nclass = dead", fillcolor="#e5813999"] ;
52 -> 58 ;
59 [label="Age_predict <= 26.5\ngini = 0.1284\nsamples = 58\nvalue = [54, 4]\nclass = dead", fillcolor="#e58139ec"] ;
51 -> 59 ;
60 [label="gini = 0.0\nsamples = 25\nvalue = [25, 0]\nclass = dead", fillcolor="#e58139ff"] ;
59 -> 60 ;
61 [label="Fare <= 8.0813\ngini = 0.213\nsamples = 33\nvalue = [29, 4]\nclass = dead", fillcolor="#e58139dc"] ;
59 -> 61 ;
62 [label="gini = 0.0\nsamples = 15\nvalue = [15, 0]\nclass = dead", fillcolor="#e58139ff"] ;
61 -> 62 ;
63 [label="gini = 0.3457\nsamples = 18\nvalue = [14, 4]\nclass = dead", fillcolor="#e58139b6"] ;
61 -> 63 ;
64 [label="Same_Room_surv_perc <= 0.75\ngini = 0.0634\nsamples = 61\nvalue = [59, 2]\nclass = dead", fillcolor="#e58139f6"] ;
36 -> 64 ;
65 [label="gini = 0.0\nsamples = 47\nvalue = [47, 0]\nclass = dead", fillcolor="#e58139ff"] ;
64 -> 65 ;
66 [label="gini = 0.2449\nsamples = 14\nvalue = [12, 2]\nclass = dead", fillcolor="#e58139d4"] ;
64 -> 66 ;
67 [label="Age_predict <= 26.125\ngini = 0.2676\nsamples = 44\nvalue = [37, 7]\nclass = dead", fillcolor="#e58139cf"] ;
35 -> 67 ;
68 [label="gini = 0.426\nsamples = 13\nvalue = [9, 4]\nclass = dead", fillcolor="#e581398e"] ;
67 -> 68 ;
69 [label="Fare <= 7.5625\ngini = 0.1748\nsamples = 31\nvalue = [28, 3]\nclass = dead", fillcolor="#e58139e4"] ;
67 -> 69 ;
70 [label="gini = 0.1107\nsamples = 17\nvalue = [16, 1]\nclass = dead", fillcolor="#e58139ef"] ;
69 -> 70 ;
71 [label="gini = 0.2449\nsamples = 14\nvalue = [12, 2]\nclass = dead", fillcolor="#e58139d4"] ;
69 -> 71 ;
72 [label="Fare <= 26.775\ngini = 0.4427\nsamples = 127\nvalue = [85, 42]\nclass = dead", fillcolor="#e5813981"] ;
34 -> 72 ;
73 [label="gini = 0.4297\nsamples = 16\nvalue = [5, 11]\nclass = survived", fillcolor="#399de58b"] ;
72 -> 73 ;
74 [label="No_cabin <= 0.5\ngini = 0.4026\nsamples = 111\nvalue = [80, 31]\nclass = dead", fillcolor="#e581399c"] ;
72 -> 74 ;
75 [label="Age_predict <= 49.5\ngini = 0.4621\nsamples = 69\nvalue = [44, 25]\nclass = dead", fillcolor="#e581396e"] ;
74 -> 75 ;
76 [label="Embarked_C <= 0.5\ngini = 0.4913\nsamples = 53\nvalue = [30, 23]\nclass = dead", fillcolor="#e581393b"] ;
75 -> 76 ;
77 [label="SibSp <= 0.5\ngini = 0.4512\nsamples = 32\nvalue = [21, 11]\nclass = dead", fillcolor="#e5813979"] ;
76 -> 77 ;
78 [label="gini = 0.3599\nsamples = 17\nvalue = [13, 4]\nclass = dead", fillcolor="#e58139b1"] ;
77 -> 78 ;
79 [label="gini = 0.4978\nsamples = 15\nvalue = [8, 7]\nclass = dead", fillcolor="#e5813920"] ;
77 -> 79 ;
80 [label="gini = 0.4898\nsamples = 21\nvalue = [9, 12]\nclass = survived", fillcolor="#399de540"] ;
76 -> 80 ;
81 [label="gini = 0.2188\nsamples = 16\nvalue = [14, 2]\nclass = dead", fillcolor="#e58139db"] ;
75 -> 81 ;
82 [label="SibSp <= 0.5\ngini = 0.2449\nsamples = 42\nvalue = [36, 6]\nclass = dead", fillcolor="#e58139d4"] ;
74 -> 82 ;
83 [label="gini = 0.42\nsamples = 20\nvalue = [14, 6]\nclass = dead", fillcolor="#e5813992"] ;
82 -> 83 ;
84 [label="gini = 0.0\nsamples = 22\nvalue = [22, 0]\nclass = dead", fillcolor="#e58139ff"] ;
82 -> 84 ;
}