digraph Tree {
node [shape=box] ;
0 [label="X[1] <= 0.5\ngini = 0.473\nsamples = 891\nvalue = [549, 342]"] ;
1 [label="X[4] <= 26.2687\ngini = 0.3064\nsamples = 577\nvalue = [468, 109]"] ;
0 -> 1 [labeldistance=2.5, labelangle=45, headlabel="True"] ;
2 [label="X[3] <= 0.5\ngini = 0.2264\nsamples = 415\nvalue = [361, 54]"] ;
1 -> 2 ;
3 [label="X[4] <= 7.9104\ngini = 0.1842\nsamples = 380\nvalue = [341, 39]"] ;
2 -> 3 ;
4 [label="X[4] <= 7.8646\ngini = 0.1457\nsamples = 177\nvalue = [163, 14]"] ;
3 -> 4 ;
5 [label="X[4] <= 7.7625\ngini = 0.1707\nsamples = 138\nvalue = [125, 13]"] ;
4 -> 5 ;
6 [label="X[0] <= 2.5\ngini = 0.136\nsamples = 109\nvalue = [101, 8]"] ;
5 -> 6 ;
7 [label="gini = 0.0\nsamples = 12\nvalue = [12, 0]"] ;
6 -> 7 ;
8 [label="X[4] <= 7.2396\ngini = 0.1513\nsamples = 97\nvalue = [89, 8]"] ;
6 -> 8 ;
9 [label="X[4] <= 7.1333\ngini = 0.2076\nsamples = 51\nvalue = [45, 6]"] ;
8 -> 9 ;
10 [label="X[4] <= 2.0062\ngini = 0.1284\nsamples = 29\nvalue = [27, 2]"] ;
9 -> 10 ;
11 [label="gini = 0.375\nsamples = 4\nvalue = [3, 1]"] ;
10 -> 11 ;
12 [label="X[4] <= 7.0104\ngini = 0.0768\nsamples = 25\nvalue = [24, 1]"] ;
10 -> 12 ;
13 [label="X[4] <= 6.9625\ngini = 0.1653\nsamples = 11\nvalue = [10, 1]"] ;
12 -> 13 ;
14 [label="gini = 0.0\nsamples = 9\nvalue = [9, 0]"] ;
13 -> 14 ;
15 [label="gini = 0.5\nsamples = 2\nvalue = [1, 1]"] ;
13 -> 15 ;
16 [label="gini = 0.0\nsamples = 14\nvalue = [14, 0]"] ;
12 -> 16 ;
17 [label="X[4] <= 7.1833\ngini = 0.2975\nsamples = 22\nvalue = [18, 4]"] ;
9 -> 17 ;
18 [label="gini = 0.0\nsamples = 1\nvalue = [0, 1]"] ;
17 -> 18 ;
19 [label="X[4] <= 7.2271\ngini = 0.2449\nsamples = 21\nvalue = [18, 3]"] ;
17 -> 19 ;
20 [label="gini = 0.18\nsamples = 10\nvalue = [9, 1]"] ;
19 -> 20 ;
21 [label="gini = 0.2975\nsamples = 11\nvalue = [9, 2]"] ;
19 -> 21 ;
22 [label="X[4] <= 7.7459\ngini = 0.0832\nsamples = 46\nvalue = [44, 2]"] ;
8 -> 22 ;
23 [label="gini = 0.0\nsamples = 27\nvalue = [27, 0]"] ;
22 -> 23 ;
24 [label="X[2] <= 0.5\ngini = 0.1884\nsamples = 19\nvalue = [17, 2]"] ;
22 -> 24 ;
25 [label="gini = 0.1975\nsamples = 18\nvalue = [16, 2]"] ;
24 -> 25 ;
26 [label="gini = 0.0\nsamples = 1\nvalue = [1, 0]"] ;
24 -> 26 ;
27 [label="X[2] <= 0.5\ngini = 0.2854\nsamples = 29\nvalue = [24, 5]"] ;
5 -> 27 ;
28 [label="X[4] <= 7.7854\ngini = 0.2604\nsamples = 26\nvalue = [22, 4]"] ;
27 -> 28 ;
29 [label="gini = 0.1653\nsamples = 11\nvalue = [10, 1]"] ;
28 -> 29 ;
30 [label="X[4] <= 7.7979\ngini = 0.32\nsamples = 15\nvalue = [12, 3]"] ;
28 -> 30 ;
31 [label="gini = 0.4444\nsamples = 6\nvalue = [4, 2]"] ;
30 -> 31 ;
32 [label="X[4] <= 7.8417\ngini = 0.1975\nsamples = 9\nvalue = [8, 1]"] ;
30 -> 32 ;
33 [label="gini = 0.0\nsamples = 2\nvalue = [2, 0]"] ;
32 -> 33 ;
34 [label="gini = 0.2449\nsamples = 7\nvalue = [6, 1]"] ;
32 -> 34 ;
35 [label="X[4] <= 7.8146\ngini = 0.4444\nsamples = 3\nvalue = [2, 1]"] ;
27 -> 35 ;
36 [label="gini = 0.5\nsamples = 2\nvalue = [1, 1]"] ;
35 -> 36 ;
37 [label="gini = 0.0\nsamples = 1\nvalue = [1, 0]"] ;
35 -> 37 ;
38 [label="X[4] <= 7.8917\ngini = 0.05\nsamples = 39\nvalue = [38, 1]"] ;
4 -> 38 ;
39 [label="gini = 0.0\nsamples = 2\nvalue = [2, 0]"] ;
38 -> 39 ;
40 [label="gini = 0.0526\nsamples = 37\nvalue = [36, 1]"] ;
38 -> 40 ;
41 [label="X[4] <= 7.9875\ngini = 0.216\nsamples = 203\nvalue = [178, 25]"] ;
3 -> 41 ;
42 [label="X[2] <= 1.5\ngini = 0.4734\nsamples = 13\nvalue = [8, 5]"] ;
41 -> 42 ;
43 [label="X[2] <= 0.5\ngini = 0.4959\nsamples = 11\nvalue = [6, 5]"] ;
42 -> 43 ;
44 [label="gini = 0.48\nsamples = 10\nvalue = [6, 4]"] ;
43 -> 44 ;
45 [label="gini = 0.0\nsamples = 1\nvalue = [0, 1]"] ;
43 -> 45 ;
46 [label="gini = 0.0\nsamples = 2\nvalue = [2, 0]"] ;
42 -> 46 ;
47 [label="X[4] <= 13.9312\ngini = 0.1884\nsamples = 190\nvalue = [170, 20]"] ;
41 -> 47 ;
48 [label="X[4] <= 13.6812\ngini = 0.2215\nsamples = 134\nvalue = [117, 17]"] ;
47 -> 48 ;
49 [label="X[2] <= 0.5\ngini = 0.2117\nsamples = 133\nvalue = [117, 16]"] ;
48 -> 49 ;
50 [label="X[4] <= 8.1354\ngini = 0.2041\nsamples = 130\nvalue = [115, 15]"] ;
49 -> 50 ;
51 [label="X[4] <= 8.0813\ngini = 0.2449\nsamples = 42\nvalue = [36, 6]"] ;
50 -> 51 ;
52 [label="gini = 0.2142\nsamples = 41\nvalue = [36, 5]"] ;
51 -> 52 ;
53 [label="gini = 0.0\nsamples = 1\nvalue = [0, 1]"] ;
51 -> 53 ;
54 [label="X[4] <= 9.4916\ngini = 0.1836\nsamples = 88\nvalue = [79, 9]"] ;
50 -> 54 ;
55 [label="X[4] <= 8.6875\ngini = 0.0799\nsamples = 24\nvalue = [23, 1]"] ;
54 -> 55 ;
56 [label="X[4] <= 8.6583\ngini = 0.1172\nsamples = 16\nvalue = [15, 1]"] ;
55 -> 56 ;
57 [label="gini = 0.0\nsamples = 6\nvalue = [6, 0]"] ;
56 -> 57 ;
58 [label="gini = 0.18\nsamples = 10\nvalue = [9, 1]"] ;
56 -> 58 ;
59 [label="gini = 0.0\nsamples = 8\nvalue = [8, 0]"] ;
55 -> 59 ;
60 [label="X[4] <= 9.6729\ngini = 0.2188\nsamples = 64\nvalue = [56, 8]"] ;
54 -> 60 ;
61 [label="gini = 0.3457\nsamples = 9\nvalue = [7, 2]"] ;
60 -> 61 ;
62 [label="X[4] <= 13.25\ngini = 0.1944\nsamples = 55\nvalue = [49, 6]"] ;
60 -> 62 ;
63 [label="X[4] <= 12.9375\ngini = 0.2041\nsamples = 52\nvalue = [46, 6]"] ;
62 -> 63 ;
64 [label="X[4] <= 11.0\ngini = 0.1528\nsamples = 24\nvalue = [22, 2]"] ;
63 -> 64 ;
65 [label="X[4] <= 10.3354\ngini = 0.1975\nsamples = 18\nvalue = [16, 2]"] ;
64 -> 65 ;
66 [label="gini = 0.0\nsamples = 2\nvalue = [2, 0]"] ;
65 -> 66 ;
67 [label="gini = 0.2188\nsamples = 16\nvalue = [14, 2]"] ;
65 -> 67 ;
68 [label="gini = 0.0\nsamples = 6\nvalue = [6, 0]"] ;
64 -> 68 ;
69 [label="gini = 0.2449\nsamples = 28\nvalue = [24, 4]"] ;
63 -> 69 ;
70 [label="gini = 0.0\nsamples = 3\nvalue = [3, 0]"] ;
62 -> 70 ;
71 [label="X[0] <= 2.5\ngini = 0.4444\nsamples = 3\nvalue = [2, 1]"] ;
49 -> 71 ;
72 [label="gini = 0.0\nsamples = 1\nvalue = [1, 0]"] ;
71 -> 72 ;
73 [label="X[4] <= 9.9521\ngini = 0.5\nsamples = 2\nvalue = [1, 1]"] ;
71 -> 73 ;
74 [label="gini = 0.0\nsamples = 1\nvalue = [1, 0]"] ;
73 -> 74 ;
75 [label="gini = 0.0\nsamples = 1\nvalue = [0, 1]"] ;
73 -> 75 ;
76 [label="gini = 0.0\nsamples = 1\nvalue = [0, 1]"] ;
48 -> 76 ;
77 [label="X[4] <= 18.3937\ngini = 0.1014\nsamples = 56\nvalue = [53, 3]"] ;
47 -> 77 ;
78 [label="gini = 0.0\nsamples = 25\nvalue = [25, 0]"] ;
77 -> 78 ;
79 [label="X[4] <= 19.3771\ngini = 0.1748\nsamples = 31\nvalue = [28, 3]"] ;
77 -> 79 ;
80 [label="gini = 0.5\nsamples = 2\nvalue = [1, 1]"] ;
79 -> 80 ;
81 [label="X[2] <= 1.5\ngini = 0.1284\nsamples = 29\nvalue = [27, 2]"] ;
79 -> 81 ;
82 [label="X[2] <= 0.5\ngini = 0.074\nsamples = 26\nvalue = [25, 1]"] ;
81 -> 82 ;
83 [label="gini = 0.0\nsamples = 13\nvalue = [13, 0]"] ;
82 -> 83 ;
84 [label="X[4] <= 25.075\ngini = 0.142\nsamples = 13\nvalue = [12, 1]"] ;
82 -> 84 ;
85 [label="gini = 0.0\nsamples = 7\nvalue = [7, 0]"] ;
84 -> 85 ;
86 [label="gini = 0.2778\nsamples = 6\nvalue = [5, 1]"] ;
84 -> 86 ;
87 [label="X[4] <= 22.4646\ngini = 0.4444\nsamples = 3\nvalue = [2, 1]"] ;
81 -> 87 ;
88 [label="gini = 0.0\nsamples = 1\nvalue = [1, 0]"] ;
87 -> 88 ;
89 [label="X[4] <= 23.7\ngini = 0.5\nsamples = 2\nvalue = [1, 1]"] ;
87 -> 89 ;
90 [label="gini = 0.0\nsamples = 1\nvalue = [0, 1]"] ;
89 -> 90 ;
91 [label="gini = 0.0\nsamples = 1\nvalue = [1, 0]"] ;
89 -> 91 ;
92 [label="X[4] <= 8.4604\ngini = 0.4898\nsamples = 35\nvalue = [20, 15]"] ;
2 -> 92 ;
93 [label="gini = 0.0\nsamples = 4\nvalue = [4, 0]"] ;
92 -> 93 ;
94 [label="X[4] <= 19.4813\ngini = 0.4995\nsamples = 31\nvalue = [16, 15]"] ;
92 -> 94 ;
95 [label="X[3] <= 1.5\ngini = 0.4297\nsamples = 16\nvalue = [5, 11]"] ;
94 -> 95 ;
96 [label="X[2] <= 1.5\ngini = 0.3911\nsamples = 15\nvalue = [4, 11]"] ;
95 -> 96 ;
97 [label="X[0] <= 2.5\ngini = 0.3367\nsamples = 14\nvalue = [3, 11]"] ;
96 -> 97 ;
98 [label="gini = 0.0\nsamples = 3\nvalue = [0, 3]"] ;
97 -> 98 ;
99 [label="X[4] <= 16.0\ngini = 0.3967\nsamples = 11\nvalue = [3, 8]"] ;
97 -> 99 ;
100 [label="X[4] <= 13.4375\ngini = 0.32\nsamples = 10\nvalue = [2, 8]"] ;
99 -> 100 ;
101 [label="gini = 0.0\nsamples = 3\nvalue = [0, 3]"] ;
100 -> 101 ;
102 [label="X[4] <= 14.8229\ngini = 0.4082\nsamples = 7\nvalue = [2, 5]"] ;
100 -> 102 ;
103 [label="gini = 0.0\nsamples = 1\nvalue = [1, 0]"] ;
102 -> 103 ;
104 [label="X[4] <= 15.6208\ngini = 0.2778\nsamples = 6\nvalue = [1, 5]"] ;
102 -> 104 ;
105 [label="X[4] <= 15.3729\ngini = 0.4444\nsamples = 3\nvalue = [1, 2]"] ;
104 -> 105 ;
106 [label="gini = 0.0\nsamples = 2\nvalue = [0, 2]"] ;
105 -> 106 ;
107 [label="gini = 0.0\nsamples = 1\nvalue = [1, 0]"] ;
105 -> 107 ;
108 [label="gini = 0.0\nsamples = 3\nvalue = [0, 3]"] ;
104 -> 108 ;
109 [label="gini = 0.0\nsamples = 1\nvalue = [1, 0]"] ;
99 -> 109 ;
110 [label="gini = 0.0\nsamples = 1\nvalue = [1, 0]"] ;
96 -> 110 ;
111 [label="gini = 0.0\nsamples = 1\nvalue = [1, 0]"] ;
95 -> 111 ;
112 [label="X[2] <= 2.0\ngini = 0.3911\nsamples = 15\nvalue = [11, 4]"] ;
94 -> 112 ;
113 [label="X[4] <= 20.3875\ngini = 0.426\nsamples = 13\nvalue = [9, 4]"] ;
112 -> 113 ;
114 [label="gini = 0.0\nsamples = 2\nvalue = [2, 0]"] ;
113 -> 114 ;
115 [label="X[4] <= 26.125\ngini = 0.4628\nsamples = 11\nvalue = [7, 4]"] ;
113 -> 115 ;
116 [label="X[0] <= 2.5\ngini = 0.4938\nsamples = 9\nvalue = [5, 4]"] ;
115 -> 116 ;
117 [label="X[2] <= 0.5\ngini = 0.4444\nsamples = 3\nvalue = [1, 2]"] ;
116 -> 117 ;
118 [label="gini = 0.0\nsamples = 1\nvalue = [1, 0]"] ;
117 -> 118 ;
119 [label="gini = 0.0\nsamples = 2\nvalue = [0, 2]"] ;
117 -> 119 ;
120 [label="X[2] <= 0.5\ngini = 0.4444\nsamples = 6\nvalue = [4, 2]"] ;
116 -> 120 ;
121 [label="gini = 0.0\nsamples = 1\nvalue = [0, 1]"] ;
120 -> 121 ;
122 [label="X[3] <= 1.5\ngini = 0.32\nsamples = 5\nvalue = [4, 1]"] ;
120 -> 122 ;
123 [label="gini = 0.0\nsamples = 2\nvalue = [2, 0]"] ;
122 -> 123 ;
124 [label="X[4] <= 22.0125\ngini = 0.4444\nsamples = 3\nvalue = [2, 1]"] ;
122 -> 124 ;
125 [label="gini = 0.5\nsamples = 2\nvalue = [1, 1]"] ;
124 -> 125 ;
126 [label="gini = 0.0\nsamples = 1\nvalue = [1, 0]"] ;
124 -> 126 ;
127 [label="gini = 0.0\nsamples = 2\nvalue = [2, 0]"] ;
115 -> 127 ;
128 [label="gini = 0.0\nsamples = 2\nvalue = [2, 0]"] ;
112 -> 128 ;
129 [label="X[2] <= 2.5\ngini = 0.4485\nsamples = 162\nvalue = [107, 55]"] ;
1 -> 129 ;
130 [label="X[4] <= 26.4688\ngini = 0.4751\nsamples = 139\nvalue = [85, 54]"] ;
129 -> 130 ;
131 [label="gini = 0.0\nsamples = 4\nvalue = [0, 4]"] ;
130 -> 131 ;
132 [label="X[4] <= 387.6646\ngini = 0.4664\nsamples = 135\nvalue = [85, 50]"] ;
130 -> 132 ;
133 [label="X[4] <= 152.5063\ngini = 0.4613\nsamples = 133\nvalue = [85, 48]"] ;
132 -> 133 ;
134 [label="X[4] <= 116.6375\ngini = 0.4702\nsamples = 127\nvalue = [79, 48]"] ;
133 -> 134 ;
135 [label="X[3] <= 2.5\ngini = 0.4612\nsamples = 122\nvalue = [78, 44]"] ;
134 -> 135 ;
136 [label="X[0] <= 2.5\ngini = 0.4661\nsamples = 119\nvalue = [75, 44]"] ;
135 -> 136 ;
137 [label="X[4] <= 30.5979\ngini = 0.4539\nsamples = 112\nvalue = [73, 39]"] ;
136 -> 137 ;
138 [label="X[4] <= 29.85\ngini = 0.4938\nsamples = 36\nvalue = [20, 16]"] ;
137 -> 138 ;
139 [label="X[4] <= 26.775\ngini = 0.4527\nsamples = 26\nvalue = [17, 9]"] ;
138 -> 139 ;
140 [label="gini = 0.5\nsamples = 14\nvalue = [7, 7]"] ;
139 -> 140 ;
141 [label="X[4] <= 28.75\ngini = 0.2778\nsamples = 12\nvalue = [10, 2]"] ;
139 -> 141 ;
142 [label="gini = 0.0\nsamples = 8\nvalue = [8, 0]"] ;
141 -> 142 ;
143 [label="X[4] <= 29.35\ngini = 0.5\nsamples = 4\nvalue = [2, 2]"] ;
141 -> 143 ;
144 [label="gini = 0.0\nsamples = 1\nvalue = [0, 1]"] ;
143 -> 144 ;
145 [label="X[3] <= 0.5\ngini = 0.4444\nsamples = 3\nvalue = [2, 1]"] ;
143 -> 145 ;
146 [label="gini = 0.5\nsamples = 2\nvalue = [1, 1]"] ;
145 -> 146 ;
147 [label="gini = 0.0\nsamples = 1\nvalue = [1, 0]"] ;
145 -> 147 ;
148 [label="X[2] <= 0.5\ngini = 0.42\nsamples = 10\nvalue = [3, 7]"] ;
138 -> 148 ;
149 [label="X[4] <= 30.25\ngini = 0.3457\nsamples = 9\nvalue = [2, 7]"] ;
148 -> 149 ;
150 [label="gini = 0.375\nsamples = 4\nvalue = [1, 3]"] ;
149 -> 150 ;
151 [label="gini = 0.32\nsamples = 5\nvalue = [1, 4]"] ;
149 -> 151 ;
152 [label="gini = 0.0\nsamples = 1\nvalue = [1, 0]"] ;
148 -> 152 ;
153 [label="X[3] <= 1.5\ngini = 0.4221\nsamples = 76\nvalue = [53, 23]"] ;
137 -> 153 ;
154 [label="X[2] <= 0.5\ngini = 0.4047\nsamples = 71\nvalue = [51, 20]"] ;
153 -> 154 ;
155 [label="X[4] <= 37.0\ngini = 0.2841\nsamples = 35\nvalue = [29, 6]"] ;
154 -> 155 ;
156 [label="X[4] <= 35.25\ngini = 0.4082\nsamples = 14\nvalue = [10, 4]"] ;
155 -> 156 ;
157 [label="X[4] <= 31.6604\ngini = 0.18\nsamples = 10\nvalue = [9, 1]"] ;
156 -> 157 ;
158 [label="X[4] <= 30.8479\ngini = 0.375\nsamples = 4\nvalue = [3, 1]"] ;
157 -> 158 ;
159 [label="gini = 0.0\nsamples = 2\nvalue = [2, 0]"] ;
158 -> 159 ;
160 [label="gini = 0.5\nsamples = 2\nvalue = [1, 1]"] ;
158 -> 160 ;
161 [label="gini = 0.0\nsamples = 6\nvalue = [6, 0]"] ;
157 -> 161 ;
162 [label="gini = 0.375\nsamples = 4\nvalue = [1, 3]"] ;
156 -> 162 ;
163 [label="X[4] <= 62.6687\ngini = 0.1723\nsamples = 21\nvalue = [19, 2]"] ;
155 -> 163 ;
164 [label="gini = 0.0\nsamples = 13\nvalue = [13, 0]"] ;
163 -> 164 ;
165 [label="X[4] <= 68.4292\ngini = 0.375\nsamples = 8\nvalue = [6, 2]"] ;
163 -> 165 ;
166 [label="gini = 0.0\nsamples = 1\nvalue = [0, 1]"] ;
165 -> 166 ;
167 [label="X[4] <= 77.0083\ngini = 0.2449\nsamples = 7\nvalue = [6, 1]"] ;
165 -> 167 ;
168 [label="X[0] <= 1.5\ngini = 0.4444\nsamples = 3\nvalue = [2, 1]"] ;
167 -> 168 ;
169 [label="gini = 0.0\nsamples = 1\nvalue = [0, 1]"] ;
168 -> 169 ;
170 [label="gini = 0.0\nsamples = 2\nvalue = [2, 0]"] ;
168 -> 170 ;
171 [label="gini = 0.0\nsamples = 4\nvalue = [4, 0]"] ;
167 -> 171 ;
172 [label="X[4] <= 59.0875\ngini = 0.4753\nsamples = 36\nvalue = [22, 14]"] ;
154 -> 172 ;
173 [label="X[4] <= 56.4146\ngini = 0.4983\nsamples = 17\nvalue = [8, 9]"] ;
172 -> 173 ;
174 [label="X[2] <= 1.5\ngini = 0.4978\nsamples = 15\nvalue = [8, 7]"] ;
173 -> 174 ;
175 [label="X[4] <= 52.2771\ngini = 0.4898\nsamples = 14\nvalue = [8, 6]"] ;
174 -> 175 ;
176 [label="X[4] <= 36.8771\ngini = 0.4082\nsamples = 7\nvalue = [5, 2]"] ;
175 -> 176 ;
177 [label="gini = 0.5\nsamples = 2\nvalue = [1, 1]"] ;
176 -> 177 ;
178 [label="X[0] <= 1.5\ngini = 0.32\nsamples = 5\nvalue = [4, 1]"] ;
176 -> 178 ;
179 [label="gini = 0.4444\nsamples = 3\nvalue = [2, 1]"] ;
178 -> 179 ;
180 [label="gini = 0.0\nsamples = 2\nvalue = [2, 0]"] ;
178 -> 180 ;
181 [label="X[4] <= 52.8271\ngini = 0.4898\nsamples = 7\nvalue = [3, 4]"] ;
175 -> 181 ;
182 [label="gini = 0.0\nsamples = 2\nvalue = [0, 2]"] ;
181 -> 182 ;
183 [label="X[4] <= 55.6709\ngini = 0.48\nsamples = 5\nvalue = [3, 2]"] ;
181 -> 183 ;
184 [label="X[4] <= 54.2709\ngini = 0.5\nsamples = 4\nvalue = [2, 2]"] ;
183 -> 184 ;
185 [label="gini = 0.4444\nsamples = 3\nvalue = [2, 1]"] ;
184 -> 185 ;
186 [label="gini = 0.0\nsamples = 1\nvalue = [0, 1]"] ;
184 -> 186 ;
187 [label="gini = 0.0\nsamples = 1\nvalue = [1, 0]"] ;
183 -> 187 ;
188 [label="gini = 0.0\nsamples = 1\nvalue = [0, 1]"] ;
174 -> 188 ;
189 [label="gini = 0.0\nsamples = 2\nvalue = [0, 2]"] ;
173 -> 189 ;
190 [label="X[4] <= 75.1146\ngini = 0.3878\nsamples = 19\nvalue = [14, 5]"] ;
172 -> 190 ;
191 [label="gini = 0.0\nsamples = 6\nvalue = [6, 0]"] ;
190 -> 191 ;
192 [label="X[4] <= 98.7521\ngini = 0.4734\nsamples = 13\nvalue = [8, 5]"] ;
190 -> 192 ;
193 [label="X[4] <= 86.2896\ngini = 0.5\nsamples = 10\nvalue = [5, 5]"] ;
192 -> 193 ;
194 [label="X[4] <= 79.425\ngini = 0.4444\nsamples = 6\nvalue = [4, 2]"] ;
193 -> 194 ;
195 [label="X[4] <= 77.7896\ngini = 0.4444\nsamples = 3\nvalue = [1, 2]"] ;
194 -> 195 ;
196 [label="gini = 0.0\nsamples = 1\nvalue = [0, 1]"] ;
195 -> 196 ;
197 [label="X[3] <= 0.5\ngini = 0.5\nsamples = 2\nvalue = [1, 1]"] ;
195 -> 197 ;
198 [label="gini = 0.0\nsamples = 1\nvalue = [1, 0]"] ;
197 -> 198 ;
199 [label="gini = 0.0\nsamples = 1\nvalue = [0, 1]"] ;
197 -> 199 ;
200 [label="gini = 0.0\nsamples = 3\nvalue = [3, 0]"] ;
194 -> 200 ;
201 [label="X[2] <= 1.5\ngini = 0.375\nsamples = 4\nvalue = [1, 3]"] ;
193 -> 201 ;
202 [label="gini = 0.0\nsamples = 3\nvalue = [0, 3]"] ;
201 -> 202 ;
203 [label="gini = 0.0\nsamples = 1\nvalue = [1, 0]"] ;
201 -> 203 ;
204 [label="gini = 0.0\nsamples = 3\nvalue = [3, 0]"] ;
192 -> 204 ;
205 [label="X[2] <= 0.5\ngini = 0.48\nsamples = 5\nvalue = [2, 3]"] ;
153 -> 205 ;
206 [label="X[4] <= 112.0791\ngini = 0.375\nsamples = 4\nvalue = [1, 3]"] ;
205 -> 206 ;
207 [label="gini = 0.0\nsamples = 3\nvalue = [0, 3]"] ;
206 -> 207 ;
208 [label="gini = 0.0\nsamples = 1\nvalue = [1, 0]"] ;
206 -> 208 ;
209 [label="gini = 0.0\nsamples = 1\nvalue = [1, 0]"] ;
205 -> 209 ;
210 [label="gini = 0.4082\nsamples = 7\nvalue = [2, 5]"] ;
136 -> 210 ;
211 [label="gini = 0.0\nsamples = 3\nvalue = [3, 0]"] ;
135 -> 211 ;
212 [label="X[2] <= 0.5\ngini = 0.32\nsamples = 5\nvalue = [1, 4]"] ;
134 -> 212 ;
213 [label="gini = 0.0\nsamples = 1\nvalue = [1, 0]"] ;
212 -> 213 ;
214 [label="gini = 0.0\nsamples = 4\nvalue = [0, 4]"] ;
212 -> 214 ;
215 [label="gini = 0.0\nsamples = 6\nvalue = [6, 0]"] ;
133 -> 215 ;
216 [label="gini = 0.0\nsamples = 2\nvalue = [0, 2]"] ;
132 -> 216 ;
217 [label="X[4] <= 35.5375\ngini = 0.0832\nsamples = 23\nvalue = [22, 1]"] ;
129 -> 217 ;
218 [label="X[4] <= 31.3312\ngini = 0.1975\nsamples = 9\nvalue = [8, 1]"] ;
217 -> 218 ;
219 [label="gini = 0.0\nsamples = 7\nvalue = [7, 0]"] ;
218 -> 219 ;
220 [label="gini = 0.5\nsamples = 2\nvalue = [1, 1]"] ;
218 -> 220 ;
221 [label="gini = 0.0\nsamples = 14\nvalue = [14, 0]"] ;
217 -> 221 ;
222 [label="X[0] <= 2.5\ngini = 0.3828\nsamples = 314\nvalue = [81, 233]"] ;
0 -> 222 [labeldistance=2.5, labelangle=-45, headlabel="False"] ;
223 [label="X[4] <= 28.8563\ngini = 0.1003\nsamples = 170\nvalue = [9, 161]"] ;
222 -> 223 ;
224 [label="X[4] <= 28.2313\ngini = 0.18\nsamples = 70\nvalue = [7, 63]"] ;
223 -> 224 ;
225 [label="X[4] <= 26.125\ngini = 0.1588\nsamples = 69\nvalue = [6, 63]"] ;
224 -> 225 ;
226 [label="X[2] <= 0.5\ngini = 0.1827\nsamples = 59\nvalue = [6, 53]"] ;
225 -> 226 ;
227 [label="X[4] <= 13.25\ngini = 0.1327\nsamples = 42\nvalue = [3, 39]"] ;
226 -> 227 ;
228 [label="X[4] <= 12.825\ngini = 0.2041\nsamples = 26\nvalue = [3, 23]"] ;
227 -> 228 ;
229 [label="X[4] <= 11.25\ngini = 0.1528\nsamples = 12\nvalue = [1, 11]"] ;
228 -> 229 ;
230 [label="gini = 0.2188\nsamples = 8\nvalue = [1, 7]"] ;
229 -> 230 ;
231 [label="gini = 0.0\nsamples = 4\nvalue = [0, 4]"] ;
229 -> 231 ;
232 [label="X[3] <= 1.0\ngini = 0.2449\nsamples = 14\nvalue = [2, 12]"] ;
228 -> 232 ;
233 [label="gini = 0.2604\nsamples = 13\nvalue = [2, 11]"] ;
232 -> 233 ;
234 [label="gini = 0.0\nsamples = 1\nvalue = [0, 1]"] ;
232 -> 234 ;
235 [label="gini = 0.0\nsamples = 16\nvalue = [0, 16]"] ;
227 -> 235 ;
236 [label="X[2] <= 1.5\ngini = 0.2907\nsamples = 17\nvalue = [3, 14]"] ;
226 -> 236 ;
237 [label="X[4] <= 22.0\ngini = 0.32\nsamples = 15\nvalue = [3, 12]"] ;
236 -> 237 ;
238 [label="X[4] <= 17.4291\ngini = 0.5\nsamples = 2\nvalue = [1, 1]"] ;
237 -> 238 ;
239 [label="gini = 0.0\nsamples = 1\nvalue = [0, 1]"] ;
238 -> 239 ;
240 [label="gini = 0.0\nsamples = 1\nvalue = [1, 0]"] ;
238 -> 240 ;
241 [label="X[4] <= 25.0\ngini = 0.2604\nsamples = 13\nvalue = [2, 11]"] ;
237 -> 241 ;
242 [label="gini = 0.0\nsamples = 3\nvalue = [0, 3]"] ;
241 -> 242 ;
243 [label="X[3] <= 0.5\ngini = 0.32\nsamples = 10\nvalue = [2, 8]"] ;
241 -> 243 ;
244 [label="gini = 0.2188\nsamples = 8\nvalue = [1, 7]"] ;
243 -> 244 ;
245 [label="gini = 0.5\nsamples = 2\nvalue = [1, 1]"] ;
243 -> 245 ;
246 [label="gini = 0.0\nsamples = 2\nvalue = [0, 2]"] ;
236 -> 246 ;
247 [label="gini = 0.0\nsamples = 10\nvalue = [0, 10]"] ;
225 -> 247 ;
248 [label="gini = 0.0\nsamples = 1\nvalue = [1, 0]"] ;
224 -> 248 ;
249 [label="X[3] <= 1.5\ngini = 0.0392\nsamples = 100\nvalue = [2, 98]"] ;
223 -> 249 ;
250 [label="gini = 0.0\nsamples = 84\nvalue = [0, 84]"] ;
249 -> 250 ;
251 [label="X[4] <= 135.775\ngini = 0.2188\nsamples = 16\nvalue = [2, 14]"] ;
249 -> 251 ;
252 [label="gini = 0.0\nsamples = 9\nvalue = [0, 9]"] ;
251 -> 252 ;
253 [label="X[4] <= 158.2083\ngini = 0.4082\nsamples = 7\nvalue = [2, 5]"] ;
251 -> 253 ;
254 [label="gini = 0.0\nsamples = 2\nvalue = [2, 0]"] ;
253 -> 254 ;
255 [label="gini = 0.0\nsamples = 5\nvalue = [0, 5]"] ;
253 -> 255 ;
256 [label="X[4] <= 23.35\ngini = 0.5\nsamples = 144\nvalue = [72, 72]"] ;
222 -> 256 ;
257 [label="X[4] <= 7.8875\ngini = 0.4839\nsamples = 117\nvalue = [48, 69]"] ;
256 -> 257 ;
258 [label="X[3] <= 1.0\ngini = 0.4082\nsamples = 42\nvalue = [12, 30]"] ;
257 -> 258 ;
259 [label="X[4] <= 6.9875\ngini = 0.3926\nsamples = 41\nvalue = [11, 30]"] ;
258 -> 259 ;
260 [label="gini = 0.0\nsamples = 1\nvalue = [1, 0]"] ;
259 -> 260 ;
261 [label="X[4] <= 7.5229\ngini = 0.375\nsamples = 40\nvalue = [10, 30]"] ;
259 -> 261 ;
262 [label="gini = 0.0\nsamples = 6\nvalue = [0, 6]"] ;
261 -> 262 ;
263 [label="X[4] <= 7.6396\ngini = 0.4152\nsamples = 34\nvalue = [10, 24]"] ;
261 -> 263 ;
264 [label="X[4] <= 7.5896\ngini = 0.4444\nsamples = 3\nvalue = [2, 1]"] ;
263 -> 264 ;
265 [label="gini = 0.5\nsamples = 2\nvalue = [1, 1]"] ;
264 -> 265 ;
266 [label="gini = 0.0\nsamples = 1\nvalue = [1, 0]"] ;
264 -> 266 ;
267 [label="X[4] <= 7.7438\ngini = 0.3829\nsamples = 31\nvalue = [8, 23]"] ;
263 -> 267 ;
268 [label="gini = 0.0\nsamples = 4\nvalue = [0, 4]"] ;
267 -> 268 ;
269 [label="X[4] <= 7.8667\ngini = 0.417\nsamples = 27\nvalue = [8, 19]"] ;
267 -> 269 ;
270 [label="X[4] <= 7.7625\ngini = 0.4537\nsamples = 23\nvalue = [8, 15]"] ;
269 -> 270 ;
271 [label="gini = 0.4082\nsamples = 14\nvalue = [4, 10]"] ;
270 -> 271 ;
272 [label="X[2] <= 0.5\ngini = 0.4938\nsamples = 9\nvalue = [4, 5]"] ;
270 -> 272 ;
273 [label="X[4] <= 7.7812\ngini = 0.5\nsamples = 8\nvalue = [4, 4]"] ;
272 -> 273 ;
274 [label="gini = 0.4444\nsamples = 3\nvalue = [2, 1]"] ;
273 -> 274 ;
275 [label="X[4] <= 7.8417\ngini = 0.48\nsamples = 5\nvalue = [2, 3]"] ;
273 -> 275 ;
276 [label="gini = 0.0\nsamples = 2\nvalue = [0, 2]"] ;
275 -> 276 ;
277 [label="gini = 0.4444\nsamples = 3\nvalue = [2, 1]"] ;
275 -> 277 ;
278 [label="gini = 0.0\nsamples = 1\nvalue = [0, 1]"] ;
272 -> 278 ;
279 [label="gini = 0.0\nsamples = 4\nvalue = [0, 4]"] ;
269 -> 279 ;
280 [label="gini = 0.0\nsamples = 1\nvalue = [1, 0]"] ;
258 -> 280 ;
281 [label="X[4] <= 15.3729\ngini = 0.4992\nsamples = 75\nvalue = [36, 39]"] ;
257 -> 281 ;
282 [label="X[4] <= 13.9083\ngini = 0.48\nsamples = 45\nvalue = [27, 18]"] ;
281 -> 282 ;
283 [label="X[4] <= 10.825\ngini = 0.4995\nsamples = 33\nvalue = [17, 16]"] ;
282 -> 283 ;
284 [label="X[4] <= 8.0396\ngini = 0.4352\nsamples = 25\nvalue = [17, 8]"] ;
283 -> 284 ;
285 [label="X[4] <= 7.9104\ngini = 0.4898\nsamples = 7\nvalue = [3, 4]"] ;
284 -> 285 ;
286 [label="gini = 0.0\nsamples = 1\nvalue = [1, 0]"] ;
285 -> 286 ;
287 [label="X[4] <= 7.9771\ngini = 0.4444\nsamples = 6\nvalue = [2, 4]"] ;
285 -> 287 ;
288 [label="X[2] <= 2.5\ngini = 0.48\nsamples = 5\nvalue = [2, 3]"] ;
287 -> 288 ;
289 [label="X[2] <= 0.5\ngini = 0.5\nsamples = 4\nvalue = [2, 2]"] ;
288 -> 289 ;
290 [label="gini = 0.4444\nsamples = 3\nvalue = [1, 2]"] ;
289 -> 290 ;
291 [label="gini = 0.0\nsamples = 1\nvalue = [1, 0]"] ;
289 -> 291 ;
292 [label="gini = 0.0\nsamples = 1\nvalue = [0, 1]"] ;
288 -> 292 ;
293 [label="gini = 0.0\nsamples = 1\nvalue = [0, 1]"] ;
287 -> 293 ;
294 [label="X[4] <= 8.6729\ngini = 0.3457\nsamples = 18\nvalue = [14, 4]"] ;
284 -> 294 ;
295 [label="gini = 0.0\nsamples = 5\nvalue = [5, 0]"] ;
294 -> 295 ;
296 [label="X[2] <= 0.5\ngini = 0.426\nsamples = 13\nvalue = [9, 4]"] ;
294 -> 296 ;
297 [label="X[4] <= 10.1521\ngini = 0.4938\nsamples = 9\nvalue = [5, 4]"] ;
296 -> 297 ;
298 [label="X[4] <= 8.7667\ngini = 0.4898\nsamples = 7\nvalue = [3, 4]"] ;
297 -> 298 ;
299 [label="gini = 0.0\nsamples = 1\nvalue = [0, 1]"] ;
298 -> 299 ;
300 [label="X[3] <= 0.5\ngini = 0.5\nsamples = 6\nvalue = [3, 3]"] ;
298 -> 300 ;
301 [label="X[4] <= 9.8396\ngini = 0.48\nsamples = 5\nvalue = [3, 2]"] ;
300 -> 301 ;
302 [label="X[4] <= 9.2188\ngini = 0.375\nsamples = 4\nvalue = [3, 1]"] ;
301 -> 302 ;
303 [label="gini = 0.0\nsamples = 1\nvalue = [1, 0]"] ;
302 -> 303 ;
304 [label="X[4] <= 9.7125\ngini = 0.4444\nsamples = 3\nvalue = [2, 1]"] ;
302 -> 304 ;
305 [label="gini = 0.5\nsamples = 2\nvalue = [1, 1]"] ;
304 -> 305 ;
306 [label="gini = 0.0\nsamples = 1\nvalue = [1, 0]"] ;
304 -> 306 ;
307 [label="gini = 0.0\nsamples = 1\nvalue = [0, 1]"] ;
301 -> 307 ;
308 [label="gini = 0.0\nsamples = 1\nvalue = [0, 1]"] ;
300 -> 308 ;
309 [label="gini = 0.0\nsamples = 2\nvalue = [2, 0]"] ;
297 -> 309 ;
310 [label="gini = 0.0\nsamples = 4\nvalue = [4, 0]"] ;
296 -> 310 ;
311 [label="gini = 0.0\nsamples = 8\nvalue = [0, 8]"] ;
283 -> 311 ;
312 [label="X[3] <= 1.5\ngini = 0.2778\nsamples = 12\nvalue = [10, 2]"] ;
282 -> 312 ;
313 [label="X[3] <= 0.5\ngini = 0.18\nsamples = 10\nvalue = [9, 1]"] ;
312 -> 313 ;
314 [label="X[4] <= 14.4562\ngini = 0.2778\nsamples = 6\nvalue = [5, 1]"] ;
313 -> 314 ;
315 [label="gini = 0.4444\nsamples = 3\nvalue = [2, 1]"] ;
314 -> 315 ;
316 [label="gini = 0.0\nsamples = 3\nvalue = [3, 0]"] ;
314 -> 316 ;
317 [label="gini = 0.0\nsamples = 4\nvalue = [4, 0]"] ;
313 -> 317 ;
318 [label="gini = 0.5\nsamples = 2\nvalue = [1, 1]"] ;
312 -> 318 ;
319 [label="X[3] <= 3.5\ngini = 0.42\nsamples = 30\nvalue = [9, 21]"] ;
281 -> 319 ;
320 [label="X[2] <= 2.5\ngini = 0.3995\nsamples = 29\nvalue = [8, 21]"] ;
319 -> 320 ;
321 [label="X[4] <= 20.2313\ngini = 0.355\nsamples = 26\nvalue = [6, 20]"] ;
320 -> 321 ;
322 [label="X[4] <= 17.6\ngini = 0.42\nsamples = 20\nvalue = [6, 14]"] ;
321 -> 322 ;
323 [label="X[4] <= 16.4\ngini = 0.2778\nsamples = 12\nvalue = [2, 10]"] ;
322 -> 323 ;
324 [label="X[3] <= 0.5\ngini = 0.3457\nsamples = 9\nvalue = [2, 7]"] ;
323 -> 324 ;
325 [label="X[4] <= 15.975\ngini = 0.2449\nsamples = 7\nvalue = [1, 6]"] ;
324 -> 325 ;
326 [label="gini = 0.0\nsamples = 4\nvalue = [0, 4]"] ;
325 -> 326 ;
327 [label="gini = 0.4444\nsamples = 3\nvalue = [1, 2]"] ;
325 -> 327 ;
328 [label="X[3] <= 1.5\ngini = 0.5\nsamples = 2\nvalue = [1, 1]"] ;
324 -> 328 ;
329 [label="gini = 0.0\nsamples = 1\nvalue = [1, 0]"] ;
328 -> 329 ;
330 [label="gini = 0.0\nsamples = 1\nvalue = [0, 1]"] ;
328 -> 330 ;
331 [label="gini = 0.0\nsamples = 3\nvalue = [0, 3]"] ;
323 -> 331 ;
332 [label="X[3] <= 0.5\ngini = 0.5\nsamples = 8\nvalue = [4, 4]"] ;
322 -> 332 ;
333 [label="gini = 0.0\nsamples = 3\nvalue = [3, 0]"] ;
332 -> 333 ;
334 [label="X[4] <= 19.7354\ngini = 0.32\nsamples = 5\nvalue = [1, 4]"] ;
332 -> 334 ;
335 [label="gini = 0.0\nsamples = 4\nvalue = [0, 4]"] ;
334 -> 335 ;
336 [label="gini = 0.0\nsamples = 1\nvalue = [1, 0]"] ;
334 -> 336 ;
337 [label="gini = 0.0\nsamples = 6\nvalue = [0, 6]"] ;
321 -> 337 ;
338 [label="X[4] <= 18.4625\ngini = 0.4444\nsamples = 3\nvalue = [2, 1]"] ;
320 -> 338 ;
339 [label="gini = 0.0\nsamples = 1\nvalue = [0, 1]"] ;
338 -> 339 ;
340 [label="gini = 0.0\nsamples = 2\nvalue = [2, 0]"] ;
338 -> 340 ;
341 [label="gini = 0.0\nsamples = 1\nvalue = [1, 0]"] ;
319 -> 341 ;
342 [label="X[3] <= 0.5\ngini = 0.1975\nsamples = 27\nvalue = [24, 3]"] ;
256 -> 342 ;
343 [label="gini = 0.0\nsamples = 1\nvalue = [0, 1]"] ;
342 -> 343 ;
344 [label="X[4] <= 31.3312\ngini = 0.142\nsamples = 26\nvalue = [24, 2]"] ;
342 -> 344 ;
345 [label="gini = 0.0\nsamples = 15\nvalue = [15, 0]"] ;
344 -> 345 ;
346 [label="X[4] <= 32.8812\ngini = 0.2975\nsamples = 11\nvalue = [9, 2]"] ;
344 -> 346 ;
347 [label="gini = 0.0\nsamples = 2\nvalue = [0, 2]"] ;
346 -> 347 ;
348 [label="gini = 0.0\nsamples = 9\nvalue = [9, 0]"] ;
346 -> 348 ;
}